digraph Tree {
node [shape=box, style="filled, rounded", color="black", fontname="helvetica"] ;
edge [fontname="helvetica"] ;
0 [label="net_flow_native <= -597.66\ngini = 0.44\nsamples = 264\nvalue = [0.54, 0.26]\nclass = Not Bet", fillcolor="#f2be99"] ;
1 [label="gini = 0.41\nsamples = 28\nvalue = [0.03, 0.07]\nclass = Bet", fillcolor="#87c4ef"] ;
0 -> 1 [labeldistance=2.5, labelangle=45, headlabel="True"] ;
2 [label="balance_1k_usd <= -2324.5\ngini = 0.4\nsamples = 236\nvalue = [0.52, 0.2]\nclass = Not Bet", fillcolor="#efb184"] ;
0 -> 2 [labeldistance=2.5, labelangle=-45, headlabel="False"] ;
3 [label="gini = 0.48\nsamples = 33\nvalue = [0.07, 0.04]\nclass = Not Bet", fillcolor="#f6d3ba"] ;
2 -> 3 ;
4 [label="close <= 345054.84\ngini = 0.38\nsamples = 203\nvalue = [0.45, 0.15]\nclass = Not Bet", fillcolor="#eeac7c"] ;
2 -> 4 ;
5 [label="gini = 0.34\nsamples = 181\nvalue = [0.38, 0.11]\nclass = Not Bet", fillcolor="#eca470"] ;
4 -> 5 ;
6 [label="gini = 0.48\nsamples = 22\nvalue = [0.07, 0.05]\nclass = Not Bet", fillcolor="#f7d9c4"] ;
4 -> 6 ;
}