digraph Tree {
node [shape=box, style="filled, rounded", color="black", fontname="helvetica"] ;
edge [fontname="helvetica"] ;
0 [label="close <= 192092.72\ngini = 0.5\nsamples = 123\nvalue = [86.5, 86.5]\nclass = Short", fillcolor="#ffffff"] ;
1 [label="close <= -173326.67\ngini = 0.44\nsamples = 77\nvalue = [30.28, 63.74]\nclass = Long", fillcolor="#97ccf1"] ;
0 -> 1 [labeldistance=2.5, labelangle=45, headlabel="True"] ;
2 [label="gini = 0.36\nsamples = 5\nvalue = [8.65, 2.6]\nclass = Short", fillcolor="#eda775"] ;
1 -> 2 ;
3 [label="balance_1k_native <= 883.66\ngini = 0.39\nsamples = 72\nvalue = [21.62, 61.14]\nclass = Long", fillcolor="#7fc0ee"] ;
1 -> 3 ;
4 [label="net_flow_native <= 61.17\ngini = 0.5\nsamples = 20\nvalue = [12.98, 15.61]\nclass = Long", fillcolor="#deeefb"] ;
3 -> 4 ;
5 [label="gini = 0.49\nsamples = 9\nvalue = [8.65, 6.5]\nclass = Short", fillcolor="#f9e0ce"] ;
4 -> 5 ;
6 [label="gini = 0.44\nsamples = 11\nvalue = [4.32, 9.11]\nclass = Long", fillcolor="#97ccf1"] ;
4 -> 6 ;
7 [label="balance_1k_usd <= -913.25\ngini = 0.27\nsamples = 52\nvalue = [8.65, 45.53]\nclass = Long", fillcolor="#5fb0ea"] ;
3 -> 7 ;
8 [label="gini = 0.0\nsamples = 19\nvalue = [0.0, 17.56]\nclass = Long", fillcolor="#399de5"] ;
7 -> 8 ;
9 [label="balance_1k_usd <= 2361.84\ngini = 0.36\nsamples = 33\nvalue = [8.65, 27.97]\nclass = Long", fillcolor="#76bbed"] ;
7 -> 9 ;
10 [label="gini = 0.43\nsamples = 22\nvalue = [8.65, 18.86]\nclass = Long", fillcolor="#94caf1"] ;
9 -> 10 ;
11 [label="gini = 0.0\nsamples = 11\nvalue = [0.0, 9.11]\nclass = Long", fillcolor="#399de5"] ;
9 -> 11 ;
12 [label="net_flow_native <= 5089.27\ngini = 0.41\nsamples = 46\nvalue = [56.23, 22.76]\nclass = Short", fillcolor="#f0b489"] ;
0 -> 12 [labeldistance=2.5, labelangle=-45, headlabel="False"] ;
13 [label="net_flow_native <= 2783.46\ngini = 0.45\nsamples = 35\nvalue = [36.76, 19.51]\nclass = Short", fillcolor="#f3c4a2"] ;
12 -> 13 ;
14 [label="close <= 321811.7\ngini = 0.34\nsamples = 21\nvalue = [30.28, 8.45]\nclass = Short", fillcolor="#eca470"] ;
13 -> 14 ;
15 [label="balance_1k_usd <= -1813.76\ngini = 0.39\nsamples = 17\nvalue = [21.62, 7.8]\nclass = Short", fillcolor="#eeae80"] ;
14 -> 15 ;
16 [label="gini = 0.13\nsamples = 3\nvalue = [8.65, 0.65]\nclass = Short", fillcolor="#e78a48"] ;
15 -> 16 ;
17 [label="gini = 0.46\nsamples = 14\nvalue = [12.98, 7.15]\nclass = Short", fillcolor="#f3c6a6"] ;
15 -> 17 ;
18 [label="gini = 0.13\nsamples = 4\nvalue = [8.65, 0.65]\nclass = Short", fillcolor="#e78a48"] ;
14 -> 18 ;
19 [label="gini = 0.47\nsamples = 14\nvalue = [6.49, 11.06]\nclass = Long", fillcolor="#add7f4"] ;
13 -> 19 ;
20 [label="balance_1k_usd <= 420.77\ngini = 0.25\nsamples = 11\nvalue = [19.46, 3.25]\nclass = Short", fillcolor="#e9965a"] ;
12 -> 20 ;
21 [label="gini = 0.11\nsamples = 5\nvalue = [10.81, 0.65]\nclass = Short", fillcolor="#e78945"] ;
20 -> 21 ;
22 [label="gini = 0.36\nsamples = 6\nvalue = [8.65, 2.6]\nclass = Short", fillcolor="#eda775"] ;
20 -> 22 ;
}