digraph Tree {
node [shape=box, style="filled, rounded", color="black", fontname="helvetica"] ;
edge [fontname="helvetica"] ;
0 [label="close <= 144798.62\ngini = 0.42\nsamples = 268\nvalue = [0.5, 0.22]\nclass = Not Bet", fillcolor="#f0b78e"] ;
1 [label="close <= 101732.52\ngini = 0.32\nsamples = 169\nvalue = [0.34, 0.09]\nclass = Not Bet", fillcolor="#eca16b"] ;
0 -> 1 [labeldistance=2.5, labelangle=45, headlabel="True"] ;
2 [label="balance_1k_native <= 370.64\ngini = 0.42\nsamples = 123\nvalue = [0.16, 0.07]\nclass = Not Bet", fillcolor="#f0b68d"] ;
1 -> 2 ;
3 [label="gini = 0.35\nsamples = 90\nvalue = [0.11, 0.03]\nclass = Not Bet", fillcolor="#eda673"] ;
2 -> 3 ;
4 [label="gini = 0.48\nsamples = 33\nvalue = [0.05, 0.04]\nclass = Not Bet", fillcolor="#f7d7c1"] ;
2 -> 4 ;
5 [label="balance_1k_native <= 376.72\ngini = 0.17\nsamples = 46\nvalue = [0.18, 0.02]\nclass = Not Bet", fillcolor="#e88e4e"] ;
1 -> 5 ;
6 [label="gini = 0.31\nsamples = 32\nvalue = [0.06, 0.01]\nclass = Not Bet", fillcolor="#eb9e67"] ;
5 -> 6 ;
7 [label="gini = 0.07\nsamples = 14\nvalue = [0.12, 0.0]\nclass = Not Bet", fillcolor="#e68640"] ;
5 -> 7 ;
8 [label="balance_1k_usd <= 954.42\ngini = 0.49\nsamples = 99\nvalue = [0.17, 0.13]\nclass = Not Bet", fillcolor="#fae4d5"] ;
0 -> 8 [labeldistance=2.5, labelangle=-45, headlabel="False"] ;
9 [label="gini = 0.48\nsamples = 61\nvalue = [0.05, 0.08]\nclass = Bet", fillcolor="#b7dbf6"] ;
8 -> 9 ;
10 [label="balance_1k_native <= 383.24\ngini = 0.41\nsamples = 38\nvalue = [0.11, 0.05]\nclass = Not Bet", fillcolor="#f0b58a"] ;
8 -> 10 ;
11 [label="gini = 0.48\nsamples = 22\nvalue = [0.05, 0.03]\nclass = Not Bet", fillcolor="#f6d2b8"] ;
10 -> 11 ;
12 [label="gini = 0.3\nsamples = 16\nvalue = [0.06, 0.01]\nclass = Not Bet", fillcolor="#eb9e66"] ;
10 -> 12 ;
}